Language model created by QuickLM on Fri Jun 24 10:54:02 EDT 2016
Copyright (c) 1996-2010 Carnegie Mellon University and Alexander I. Rudnicky

The model is in standard ARPA format, designed by Doug Paul while he was at MITRE.

The code that was used to produce this language model is available in Open Source.
Please visit http://www.speech.cs.cmu.edu/tools/ for more information

The (fixed) discount mass is 0.5. The backoffs are computed using the ratio method.
This model based on a corpus of 60 sentences and 43 words

\data\
ngram 1=43
ngram 2=98
ngram 3=92

\1-grams:
-0.8976 </s> -0.3010
-0.8976 <s> -0.1946
-2.6758 ABORT -0.2423
-2.6758 ADD -0.2423
-2.6758 BEHIND -0.2423
-2.1987 CAMERA -0.2983
-2.3747 CANCEL -0.2359
-1.8976 CARTESIAN -0.2380
-2.3747 COMPUTE -0.2955
-2.6758 CONSIDER -0.2992
-2.3747 CONTROL -0.2992
-2.3747 DELETE -0.2401
-2.3747 DIRECTIONS -0.2423
-2.6758 ECHO -0.2423
-1.8976 EXECUTE -0.2359
-2.6758 FREE -0.2992
-2.6758 FRONT -0.2423
-1.8307 GO -0.2370
-2.6758 HELLO -0.2423
-1.9768 HOME -0.2423
-2.6758 IGNORE -0.2992
-2.6758 INVERTED -0.2992
-2.3747 LAST -0.2423
-2.6758 LIMIT -0.2992
-2.6758 MANIPULATION -0.2423
-2.3747 MODE -0.2423
-2.1987 MOVE -0.2423
-2.6758 NATURAL -0.2992
-2.6758 NAVIGATION -0.2423
-2.6758 NEW -0.2423
-2.6758 NO -0.2423
-2.6758 OKAY -0.2423
-2.6758 PATH -0.2423
-1.8307 PLAN -0.2370
-1.5618 PLEASE -0.2141
-2.3747 REMOVE -0.2401
-2.6758 RESET -0.2423
-1.6344 ROBOT -0.1993
-2.3747 ROTATION -0.2423
-1.8976 STOP -0.2359
-1.6344 TEMOTO -0.1993
-2.6758 TOP -0.2423
-2.6758 YES -0.2423

\2-grams:
-2.0792 <s> ABORT 0.0000
-2.0792 <s> ADD 0.0000
-1.6021 <s> CAMERA 0.0000
-1.7782 <s> CANCEL 0.0000
-1.7782 <s> CARTESIAN -0.0669
-1.7782 <s> COMPUTE 0.0000
-2.0792 <s> CONSIDER 0.0000
-1.7782 <s> DELETE 0.0000
-2.0792 <s> ECHO 0.0000
-1.7782 <s> EXECUTE 0.0000
-2.0792 <s> FREE 0.0000
-2.0792 <s> GO -0.1091
-2.0792 <s> HELLO 0.0000
-2.0792 <s> HOME 0.0000
-2.0792 <s> IGNORE 0.0000
-2.0792 <s> INVERTED 0.0000
-2.0792 <s> LIMIT 0.0000
-2.0792 <s> MANIPULATION 0.0000
-2.0792 <s> MOVE 0.0000
-2.0792 <s> NATURAL 0.0000
-2.0792 <s> NAVIGATION 0.0000
-2.0792 <s> NEW 0.0000
-2.0792 <s> NO 0.0000
-2.0792 <s> OKAY 0.0000
-2.0792 <s> PLAN -0.1091
-2.0792 <s> PLEASE -0.2840
-1.7782 <s> REMOVE 0.0000
-2.0792 <s> RESET 0.0000
-1.0378 <s> ROBOT 0.0000
-2.0792 <s> STOP -0.2632
-1.0378 <s> TEMOTO 0.0000
-2.0792 <s> YES 0.0000
-0.3010 ABORT </s> -0.3010
-0.3010 ADD </s> -0.3010
-0.3010 BEHIND </s> -0.3010
-0.7782 CAMERA BEHIND 0.0000
-0.7782 CAMERA FRONT 0.0000
-0.7782 CAMERA TOP 0.0000
-0.6021 CANCEL </s> -0.3010
-0.6021 CANCEL CARTESIAN -0.1761
-0.6021 CARTESIAN </s> -0.3010
-0.7782 CARTESIAN MOVE 0.0000
-1.0792 CARTESIAN PATH 0.0000
-0.3010 COMPUTE CARTESIAN -0.1249
-0.3010 CONSIDER ROTATION 0.0000
-0.3010 CONTROL MODE 0.0000
-0.6021 DELETE </s> -0.3010
-0.6021 DELETE LAST 0.0000
-0.3010 DIRECTIONS </s> -0.3010
-0.3010 ECHO </s> -0.3010
-0.3802 EXECUTE </s> -0.3010
-1.0792 EXECUTE CARTESIAN -0.2218
-0.3010 FREE DIRECTIONS 0.0000
-0.3010 FRONT </s> -0.3010
-0.4472 GO </s> -0.3010
-0.8451 GO HOME 0.0000
-0.3010 HELLO </s> -0.3010
-0.3010 HOME </s> -0.3010
-0.3010 IGNORE ROTATION 0.0000
-0.3010 INVERTED CONTROL 0.0000
-0.3010 LAST </s> -0.3010
-0.3010 LIMIT DIRECTIONS 0.0000
-0.3010 MANIPULATION </s> -0.3010
-0.3010 MODE </s> -0.3010
-0.3010 MOVE </s> -0.3010
-0.3010 NATURAL CONTROL 0.0000
-0.3010 NAVIGATION </s> -0.3010
-0.3010 NEW </s> -0.3010
-0.3010 NO </s> -0.3010
-0.3010 OKAY </s> -0.3010
-0.3010 PATH </s> -0.3010
-0.4472 PLAN </s> -0.3010
-0.8451 PLAN HOME 0.0000
-1.4150 PLEASE </s> -0.3010
-1.1139 PLEASE EXECUTE -0.0669
-0.8129 PLEASE GO 0.0000
-0.8129 PLEASE PLAN 0.0000
-1.1139 PLEASE STOP -0.0669
-0.6021 REMOVE </s> -0.3010
-0.6021 REMOVE LAST 0.0000
-0.3010 RESET </s> -0.3010
-1.3424 ROBOT </s> -0.3010
-1.3424 ROBOT EXECUTE -0.0669
-1.3424 ROBOT GO -0.1091
-1.3424 ROBOT PLAN -0.1091
-0.5643 ROBOT PLEASE -0.0322
-1.3424 ROBOT STOP -0.0669
-0.3010 ROTATION </s> -0.3010
-0.3802 STOP </s> -0.3010
-1.0792 STOP STOP -0.0669
-1.3424 TEMOTO </s> -0.3010
-1.3424 TEMOTO EXECUTE -0.0669
-1.3424 TEMOTO GO -0.1091
-1.3424 TEMOTO PLAN -0.1091
-0.5643 TEMOTO PLEASE -0.0322
-1.3424 TEMOTO STOP -0.0669
-0.3010 TOP </s> -0.3010
-0.3010 YES </s> -0.3010

\3-grams:
-0.3010 <s> ABORT </s>
-0.3010 <s> ADD </s>
-0.7782 <s> CAMERA BEHIND
-0.7782 <s> CAMERA FRONT
-0.7782 <s> CAMERA TOP
-0.6021 <s> CANCEL </s>
-0.6021 <s> CANCEL CARTESIAN
-0.6021 <s> CARTESIAN </s>
-0.6021 <s> CARTESIAN MOVE
-0.3010 <s> COMPUTE CARTESIAN
-0.3010 <s> CONSIDER ROTATION
-0.6021 <s> DELETE </s>
-0.6021 <s> DELETE LAST
-0.3010 <s> ECHO </s>
-0.6021 <s> EXECUTE </s>
-0.6021 <s> EXECUTE CARTESIAN
-0.3010 <s> FREE DIRECTIONS
-0.3010 <s> GO </s>
-0.3010 <s> HELLO </s>
-0.3010 <s> HOME </s>
-0.3010 <s> IGNORE ROTATION
-0.3010 <s> INVERTED CONTROL
-0.3010 <s> LIMIT DIRECTIONS
-0.3010 <s> MANIPULATION </s>
-0.3010 <s> MOVE </s>
-0.3010 <s> NATURAL CONTROL
-0.3010 <s> NAVIGATION </s>
-0.3010 <s> NEW </s>
-0.3010 <s> NO </s>
-0.3010 <s> OKAY </s>
-0.3010 <s> PLAN </s>
-0.3010 <s> PLEASE </s>
-0.6021 <s> REMOVE </s>
-0.6021 <s> REMOVE LAST
-0.3010 <s> RESET </s>
-1.3424 <s> ROBOT </s>
-1.3424 <s> ROBOT EXECUTE
-1.3424 <s> ROBOT GO
-1.3424 <s> ROBOT PLAN
-0.5643 <s> ROBOT PLEASE
-1.3424 <s> ROBOT STOP
-0.3010 <s> STOP STOP
-1.3424 <s> TEMOTO </s>
-1.3424 <s> TEMOTO EXECUTE
-1.3424 <s> TEMOTO GO
-1.3424 <s> TEMOTO PLAN
-0.5643 <s> TEMOTO PLEASE
-1.3424 <s> TEMOTO STOP
-0.3010 <s> YES </s>
-0.3010 CAMERA BEHIND </s>
-0.3010 CAMERA FRONT </s>
-0.3010 CAMERA TOP </s>
-0.3010 CANCEL CARTESIAN </s>
-0.3010 CARTESIAN MOVE </s>
-0.3010 CARTESIAN PATH </s>
-0.6021 COMPUTE CARTESIAN </s>
-0.6021 COMPUTE CARTESIAN PATH
-0.3010 CONSIDER ROTATION </s>
-0.3010 CONTROL MODE </s>
-0.3010 DELETE LAST </s>
-0.3010 EXECUTE CARTESIAN MOVE
-0.3010 FREE DIRECTIONS </s>
-0.3010 GO HOME </s>
-0.3010 IGNORE ROTATION </s>
-0.3010 INVERTED CONTROL MODE
-0.3010 LIMIT DIRECTIONS </s>
-0.3010 NATURAL CONTROL MODE
-0.3010 PLAN HOME </s>
-0.3010 PLEASE EXECUTE </s>
-0.6021 PLEASE GO </s>
-0.6021 PLEASE GO HOME
-0.6021 PLEASE PLAN </s>
-0.6021 PLEASE PLAN HOME
-0.3010 PLEASE STOP </s>
-0.3010 REMOVE LAST </s>
-0.3010 ROBOT EXECUTE </s>
-0.3010 ROBOT GO </s>
-0.3010 ROBOT PLAN </s>
-1.0792 ROBOT PLEASE EXECUTE
-0.7782 ROBOT PLEASE GO
-0.7782 ROBOT PLEASE PLAN
-1.0792 ROBOT PLEASE STOP
-0.3010 ROBOT STOP </s>
-0.3010 STOP STOP </s>
-0.3010 TEMOTO EXECUTE </s>
-0.3010 TEMOTO GO </s>
-0.3010 TEMOTO PLAN </s>
-1.0792 TEMOTO PLEASE EXECUTE
-0.7782 TEMOTO PLEASE GO
-0.7782 TEMOTO PLEASE PLAN
-1.0792 TEMOTO PLEASE STOP
-0.3010 TEMOTO STOP </s>

\end\
